import cv2
import pygame

# Load the pre-trained person detection model
hog = cv2.HOGDescriptor()
hog.setSVMDetector(cv2.HOGDescriptor_getDefaultPeopleDetector())

# Initialize the video capture object
cap = cv2.VideoCapture(0)

# Initialize the pygame mixer for playing the alarm sound
pygame.mixer.init()
alarm_sound = pygame.mixer.Sound('alarm.wav')

while True:
    # Read a frame from the video capture object
    ret, frame = cap.read()
    

    # Apply the person detection model to the frame
    rects, weights = hog.detectMultiScale(frame, winStride=(8, 8), padding=(16, 16), scale=1.05)

    # Draw a rectangle around each detected person
    for (x, y, w, h) in rects:
        cv2.rectangle(frame, (x, y), (x+w, y+h), (0, 0, 255), 2)

        # Play the alarm sound if a person is detected
        alarm_sound.play()

    # Show the frame with the detected persons
    cv2.imshow('Person Detection', frame)

    # Break the loop if 'q' is pressed
    if cv2.waitKey(1) & 0xFF == ord('q'):
        break

# Release the video capture object, stop the alarm sound, and close all windows
cap.release()
pygame.mixer.stop()
cv2.destroyAllWindows()

